digraph Tree {
node [shape=box] ;
0 [label="X[15] <= 0.5\nentropy = 0.645\nsamples = 131\nvalue = [35, 178]"] ;
1 [label="X[16] <= 0.5\nentropy = 0.767\nsamples = 88\nvalue = [34, 118]"] ;
0 -> 1 [labeldistance=2.5, labelangle=45, headlabel="True"] ;
2 [label="X[7] <= 0.5\nentropy = 0.808\nsamples = 79\nvalue = [34, 103]"] ;
1 -> 2 ;
3 [label="X[6] <= 0.5\nentropy = 0.94\nsamples = 52\nvalue = [31, 56]"] ;
2 -> 3 ;
4 [label="X[2] <= 0.5\nentropy = 0.971\nsamples = 44\nvalue = [30, 45]"] ;
3 -> 4 ;
5 [label="X[20] <= 0.5\nentropy = 0.994\nsamples = 40\nvalue = [30, 36]"] ;
4 -> 5 ;
6 [label="X[1] <= 0.5\nentropy = 1.0\nsamples = 37\nvalue = [30, 30]"] ;
5 -> 6 ;
7 [label="X[5] <= 0.5\nentropy = 1.0\nsamples = 36\nvalue = [29, 30]"] ;
6 -> 7 ;
8 [label="X[18] <= 0.5\nentropy = 1.0\nsamples = 32\nvalue = [27, 27]"] ;
7 -> 8 ;
9 [label="X[8] <= 0.5\nentropy = 0.992\nsamples = 29\nvalue = [22, 27]"] ;
8 -> 9 ;
10 [label="entropy = 0.998\nsamples = 23\nvalue = [19, 21]"] ;
9 -> 10 ;
11 [label="entropy = 0.918\nsamples = 6\nvalue = [3, 6]"] ;
9 -> 11 ;
12 [label="entropy = 0.0\nsamples = 3\nvalue = [5, 0]"] ;
8 -> 12 ;
13 [label="X[18] <= 0.5\nentropy = 0.971\nsamples = 4\nvalue = [2, 3]"] ;
7 -> 13 ;
14 [label="X[0] <= 0.5\nentropy = 0.918\nsamples = 2\nvalue = [1, 2]"] ;
13 -> 14 ;
15 [label="entropy = 0.0\nsamples = 1\nvalue = [1, 0]"] ;
14 -> 15 ;
16 [label="entropy = 0.0\nsamples = 1\nvalue = [0, 2]"] ;
14 -> 16 ;
17 [label="X[10] <= 0.5\nentropy = 1.0\nsamples = 2\nvalue = [1, 1]"] ;
13 -> 17 ;
18 [label="entropy = 0.0\nsamples = 1\nvalue = [1, 0]"] ;
17 -> 18 ;
19 [label="entropy = 0.0\nsamples = 1\nvalue = [0, 1]"] ;
17 -> 19 ;
20 [label="entropy = 0.0\nsamples = 1\nvalue = [1, 0]"] ;
6 -> 20 ;
21 [label="entropy = 0.0\nsamples = 3\nvalue = [0, 6]"] ;
5 -> 21 ;
22 [label="entropy = 0.0\nsamples = 4\nvalue = [0, 9]"] ;
4 -> 22 ;
23 [label="X[10] <= 0.5\nentropy = 0.414\nsamples = 8\nvalue = [1, 11]"] ;
3 -> 23 ;
24 [label="X[11] <= 0.5\nentropy = 0.592\nsamples = 5\nvalue = [1, 6]"] ;
23 -> 24 ;
25 [label="entropy = 0.0\nsamples = 1\nvalue = [0, 1]"] ;
24 -> 25 ;
26 [label="X[9] <= 0.5\nentropy = 0.65\nsamples = 4\nvalue = [1, 5]"] ;
24 -> 26 ;
27 [label="entropy = 0.0\nsamples = 2\nvalue = [0, 3]"] ;
26 -> 27 ;
28 [label="entropy = 0.918\nsamples = 2\nvalue = [1, 2]"] ;
26 -> 28 ;
29 [label="entropy = 0.0\nsamples = 3\nvalue = [0, 5]"] ;
23 -> 29 ;
30 [label="X[21] <= 0.5\nentropy = 0.327\nsamples = 27\nvalue = [3, 47]"] ;
2 -> 30 ;
31 [label="X[10] <= 0.5\nentropy = 0.672\nsamples = 10\nvalue = [3, 14]"] ;
30 -> 31 ;
32 [label="X[4] <= 0.5\nentropy = 0.75\nsamples = 8\nvalue = [3, 11]"] ;
31 -> 32 ;
33 [label="X[8] <= 0.5\nentropy = 0.811\nsamples = 3\nvalue = [3, 1]"] ;
32 -> 33 ;
34 [label="X[12] <= 0.5\nentropy = 1.0\nsamples = 2\nvalue = [1, 1]"] ;
33 -> 34 ;
35 [label="entropy = 0.0\nsamples = 1\nvalue = [1, 0]"] ;
34 -> 35 ;
36 [label="entropy = 0.0\nsamples = 1\nvalue = [0, 1]"] ;
34 -> 36 ;
37 [label="entropy = 0.0\nsamples = 1\nvalue = [2, 0]"] ;
33 -> 37 ;
38 [label="entropy = 0.0\nsamples = 5\nvalue = [0, 10]"] ;
32 -> 38 ;
39 [label="entropy = 0.0\nsamples = 2\nvalue = [0, 3]"] ;
31 -> 39 ;
40 [label="entropy = 0.0\nsamples = 17\nvalue = [0, 33]"] ;
30 -> 40 ;
41 [label="entropy = 0.0\nsamples = 9\nvalue = [0, 15]"] ;
1 -> 41 ;
42 [label="X[14] <= 0.5\nentropy = 0.121\nsamples = 43\nvalue = [1, 60]"] ;
0 -> 42 [labeldistance=2.5, labelangle=-45, headlabel="False"] ;
43 [label="entropy = 0.0\nsamples = 23\nvalue = [0, 33]"] ;
42 -> 43 ;
44 [label="X[2] <= 0.5\nentropy = 0.222\nsamples = 20\nvalue = [1, 27]"] ;
42 -> 44 ;
45 [label="entropy = 0.0\nsamples = 7\nvalue = [0, 10]"] ;
44 -> 45 ;
46 [label="X[9] <= 0.5\nentropy = 0.31\nsamples = 13\nvalue = [1, 17]"] ;
44 -> 46 ;
47 [label="X[19] <= 0.5\nentropy = 0.469\nsamples = 6\nvalue = [1, 9]"] ;
46 -> 47 ;
48 [label="X[20] <= 0.5\nentropy = 0.918\nsamples = 2\nvalue = [1, 2]"] ;
47 -> 48 ;
49 [label="entropy = 0.0\nsamples = 1\nvalue = [1, 0]"] ;
48 -> 49 ;
50 [label="entropy = 0.0\nsamples = 1\nvalue = [0, 2]"] ;
48 -> 50 ;
51 [label="entropy = 0.0\nsamples = 4\nvalue = [0, 7]"] ;
47 -> 51 ;
52 [label="entropy = 0.0\nsamples = 7\nvalue = [0, 8]"] ;
46 -> 52 ;
}
